11
11
11
11
11
11
11
11
11
11
3
3
3
3
3
3
3
11
11
11
11
5
5
5
11
11
11
11
11
11
11
11
11
11
11
11
11
11
11
3
3
3
3
3
3
3
3
3
3
7
7
-3
5
5
5
5
9
15
11
11
11
11
11
11
11
11
11
11
11
11
3
3
3
3
-1
7
7
5
3
3
1
3
3
1
7
5
5
3
3
3
5
5
11
11
11
11
11
11
11
11
11
3
3
3
7
7
7
3
-5
-3
-15
-19
-11
-11
5
9
15
-3
9
9
3
-1
5
5
5
5
11
11
11
11
11
11
11
3
3
7
7
1
1
7
-11
-9
-9
-9
-5
1
3
7
5
-1
-7
15
11
11
7
11
5
5
5
11
11
11
11
11
11
3
-1
7
3
-3
5
-7
-3
1
3
13
13
-7
-3
5
13
-5
-9
11
13
5
9
11
11
5
5
11
11
11
11
11
11
3
-1
7
1
3
7
7
-3
5
9
15
11
3
-5
-1
21
-3
7
1
13
5
9
11
11
5
5
11
11
11
11
11
11
3
-1
5
9
5
7
3
3
9
15
13
9
17
17
11
9
5
3
1
5
5
9
13
11
5
5
11
11
11
11
11
11
5
1
5
7
-1
3
5
1
13
23
25
11
21
17
3
9
19
3
1
5
3
9
13
5
5
5
11
11
11
11
11
11
5
-7
-1
1
9
11
7
17
21
21
21
19
19
-1
-5
3
15
-1
-1
5
9
13
7
7
5
11
11
11
11
11
11
7
-3
-9
-13
5
9
13
17
13
17
15
19
15
9
-5
-11
7
1
-1
-9
9
9
5
7
7
5
11
11
11
11
11
7
3
5
1
-1
11
21
15
13
13
11
11
19
11
9
-3
-5
11
5
-5
3
9
9
5
7
13
11
11
11
11
11
11
7
3
9
7
5
23
21
13
13
9
11
15
5
15
3
-3
-7
5
9
-5
-7
9
9
7
7
13
13
11
11
11
11
11
7
7
9
7
5
21
21
13
11
11
15
15
11
9
13
-7
-7
11
-1
-7
-7
7
9
13
11
13
13
11
11
11
11
11
7
7
13
15
13
19
19
13
15
17
7
11
17
17
-1
-7
-1
-1
-7
-1
11
13
15
13
11
13
13
11
11
11
11
11
7
7
15
15
13
19
21
19
19
5
3
7
15
3
3
5
5
1
3
15
21
19
15
13
11
13
13
11
11
11
11
7
7
7
15
15
11
19
21
19
5
-3
1
7
13
-1
-5
7
1
-1
-1
15
21
19
15
13
11
13
13
11
11
11
11
7
7
11
15
15
11
15
15
-5
-11
-17
1
1
1
-17
-5
-3
3
11
11
13
19
19
15
13
11
13
13
11
11
11
11
7
7
11
15
15
11
5
-3
-19
-19
-3
3
-1
-5
1
-9
-3
17
19
11
13
21
19
17
13
11
13
13
11
11
11
11
7
7
13
15
15
-3
-13
-17
-19
-7
-5
-3
-3
-1
-11
5
13
25
19
13
13
19
19
15
13
11
13
13
11
11
11
11
7
7
13
15
-1
-15
-23
-13
-7
-1
-9
-13
-1
1
5
5
21
25
15
13
13
17
19
15
13
11
13
13
11
11
11
11
7
7
13
5
-13
-23
-9
3
-11
-13
-11
-1
9
15
5
13
21
25
15
13
13
17
19
15
13
11
13
13
11
11
11
11
7
7
13
-9
-13
-13
5
-3
-7
-11
-5
17
17
15
5
11
21
25
17
13
13
17
21
15
13
7
9
9
7
7
11
11
11
11
-1
-5
-13
1
-9
-1
-7
5
7
13
17
9
7
9
15
25
17
13
11
17
17
11
7
7
9
9
7
11
11
11
11
11
-9
-5
5
-11
-5
1
1
-1
-7
7
13
11
11
13
15
15
11
7
5
9
7
1
3
-1
13
13
11
11
11
11
11
3
-9
-9
17
-7
1
-3
-17
-15
-7
-1
13
5
3
-1
1
-15
-13
-11
-11
-9
-9
-13
-13
-3
-3
11
11
11
11
11
3
1
-15
-3
3
-3
-11
-13
-19
-15
-3
9
9
-1
-7
1
-1
-3
-7
-7
-15
-19
-21
-13
-9
-19
-9
5
11
11
11
11
3
-1
-3
-7
-11
-13
-13
-25
-11
1
9
13
17
5
-1
1
7
1
5
-1
-3
1
-1
-3
-9
-3
5
9
11
11
11
11
3
3
-1
-3
-15
-5
-15
-9
-5
11
11
5
7
-1
-3
5
-1
-5
-7
-9
-11
-1
-1
-3
-1
3
9
9
9
11
11
11
15
7
7
3
9
1
-3
-3
-3
1
3
-1
1
-5
1
5
3
7
7
3
3
5
3
1
1
1
5
7
7
11
11
11
11
11
11
7
7
-1
-5
-1
3
3
3
-1
5
5
15
15
11
11
11
11
11
11
11
11
11
11
11
11
11
11
11
11
11
11
11
11
11
11
11
11
15
15
11
11
11
11
11
11
11
11
11
11
11
11
11
11
11
11
11
11
11
11
